digraph Tree {
node [shape=box] ;
0 [label="X[0] <= -1.1189\nentropy = 0.7249\nsamples = 1345\nvalue = [1074, 271]"] ;
1 [label="X[2] <= -0.3697\nentropy = 0.8831\nsamples = 136\nvalue = [41, 95]"] ;
0 -> 1 [labeldistance=2.5, labelangle=45, headlabel="True"] ;
2 [label="X[3] <= 0.0004\nentropy = 0.9724\nsamples = 82\nvalue = [33, 49]"] ;
1 -> 2 ;
3 [label="entropy = 0.9928\nsamples = 40\nvalue = [18, 22]"] ;
2 -> 3 ;
4 [label="entropy = 0.9403\nsamples = 42\nvalue = [15, 27]"] ;
2 -> 4 ;
5 [label="entropy = 0.6052\nsamples = 54\nvalue = [8, 46]"] ;
1 -> 5 ;
6 [label="X[0] <= 0.1942\nentropy = 0.5987\nsamples = 1209\nvalue = [1033, 176]"] ;
0 -> 6 [labeldistance=2.5, labelangle=-45, headlabel="False"] ;
7 [label="X[0] <= -0.5937\nentropy = 0.7202\nsamples = 688\nvalue = [551, 137]"] ;
6 -> 7 ;
8 [label="X[3] <= 0.9213\nentropy = 0.4648\nsamples = 304\nvalue = [274, 30]"] ;
7 -> 8 ;
9 [label="X[2] <= -0.5672\nentropy = 0.3871\nsamples = 264\nvalue = [244, 20]"] ;
8 -> 9 ;
10 [label="entropy = 0.5802\nsamples = 65\nvalue = [56, 9]"] ;
9 -> 10 ;
11 [label="X[2] <= 0.0811\nentropy = 0.3084\nsamples = 199\nvalue = [188, 11]"] ;
9 -> 11 ;
12 [label="entropy = 0.1893\nsamples = 138\nvalue = [134, 4]"] ;
11 -> 12 ;
13 [label="entropy = 0.5141\nsamples = 61\nvalue = [54, 7]"] ;
11 -> 13 ;
14 [label="entropy = 0.8113\nsamples = 40\nvalue = [30, 10]"] ;
8 -> 14 ;
15 [label="X[0] <= -0.0684\nentropy = 0.8536\nsamples = 384\nvalue = [277, 107]"] ;
7 -> 15 ;
16 [label="X[1] <= -0.6932\nentropy = 0.9365\nsamples = 241\nvalue = [156, 85]"] ;
15 -> 16 ;
17 [label="entropy = 0.694\nsamples = 59\nvalue = [48, 11]"] ;
16 -> 17 ;
18 [label="X[2] <= -0.0453\nentropy = 0.9747\nsamples = 182\nvalue = [108, 74]"] ;
16 -> 18 ;
19 [label="entropy = 0.9367\nsamples = 119\nvalue = [77, 42]"] ;
18 -> 19 ;
20 [label="entropy = 0.9998\nsamples = 63\nvalue = [31, 32]"] ;
18 -> 20 ;
21 [label="X[1] <= -0.5702\nentropy = 0.6194\nsamples = 143\nvalue = [121, 22]"] ;
15 -> 21 ;
22 [label="entropy = 0.2499\nsamples = 48\nvalue = [46, 2]"] ;
21 -> 22 ;
23 [label="X[3] <= 0.7001\nentropy = 0.7425\nsamples = 95\nvalue = [75, 20]"] ;
21 -> 23 ;
24 [label="entropy = 0.5499\nsamples = 55\nvalue = [48, 7]"] ;
23 -> 24 ;
25 [label="entropy = 0.9097\nsamples = 40\nvalue = [27, 13]"] ;
23 -> 25 ;
26 [label="X[3] <= 0.5078\nentropy = 0.3838\nsamples = 521\nvalue = [482, 39]"] ;
6 -> 26 ;
27 [label="X[0] <= 0.7194\nentropy = 0.2678\nsamples = 372\nvalue = [355, 17]"] ;
26 -> 27 ;
28 [label="X[3] <= -0.1439\nentropy = 0.0789\nsamples = 103\nvalue = [102, 1]"] ;
27 -> 28 ;
29 [label="entropy = 0.0\nsamples = 63\nvalue = [63, 0]"] ;
28 -> 29 ;
30 [label="entropy = 0.1687\nsamples = 40\nvalue = [39, 1]"] ;
28 -> 30 ;
31 [label="X[0] <= 0.982\nentropy = 0.3254\nsamples = 269\nvalue = [253, 16]"] ;
27 -> 31 ;
32 [label="entropy = 0.7046\nsamples = 47\nvalue = [38, 9]"] ;
31 -> 32 ;
33 [label="X[3] <= -0.5829\nentropy = 0.202\nsamples = 222\nvalue = [215, 7]"] ;
31 -> 33 ;
34 [label="entropy = 0.0\nsamples = 79\nvalue = [79, 0]"] ;
33 -> 34 ;
35 [label="entropy = 0.2819\nsamples = 143\nvalue = [136, 7]"] ;
33 -> 35 ;
36 [label="X[0] <= 0.5881\nentropy = 0.6039\nsamples = 149\nvalue = [127, 22]"] ;
26 -> 36 ;
37 [label="entropy = 0.3675\nsamples = 71\nvalue = [66, 5]"] ;
36 -> 37 ;
38 [label="entropy = 0.7564\nsamples = 78\nvalue = [61, 17]"] ;
36 -> 38 ;
}